{"0_weights": [[-0.09360868483781815, 0.018886765465140343, 0.027796857059001923, -0.410993367433548, -0.5230132341384888, -0.47575172781944275, -0.13518376648426056, 0.27128317952156067, -0.039054207503795624, -0.08196424692869186, 0.2644951641559601, -0.039522308856248856, 0.13915394246578217, 0.18806728720664978, 0.15416373312473297, -0.7123299241065979], [-0.17686539888381958, 0.382320761680603, 0.2516688406467438, -0.1226184070110321, -0.7452411651611328, 0.058517321944236755, 0.8536128997802734, -0.4124544858932495, 0.34749943017959595, 0.39391589164733887, 0.19829154014587402, -0.31224456429481506, -0.4556889832019806, 0.7854086756706238, 0.47670453786849976, -0.27645960450172424], [-0.7494154572486877, -0.09243498742580414, 0.17264674603939056, -0.4331565797328949, -0.007324131205677986, 0.37323683500289917, 0.15469026565551758, -0.041132692247629166, -0.33127346634864807, 0.055407147854566574, -0.4491676390171051, 0.7131583094596863, 0.38859331607818604, -0.10771667957305908, 0.4243933856487274, 0.3437090814113617], [-0.9085057377815247, 0.22847311198711395, 0.24715527892112732, 0.866562008857727, 0.5017625689506531, 0.5446715354919434, 0.15891019999980927, 0.4093867838382721, 0.3462520241737366, 0.41237974166870117, -0.4721871316432953, 0.4428616166114807, 1.1673043966293335, 0.1251305639743805, -0.49053797125816345, -0.5830077528953552], [0.2663261294364929, -0.11563458293676376, 0.2255275547504425, 0.5382736921310425, -0.29790061712265015, 0.22819402813911438, 0.15801700949668884, 0.2589845359325409, 0.7859806418418884, 0.7580357193946838, 0.43118762969970703, 0.07061160355806351, 0.35014012455940247, -0.41271689534187317, 0.2194005250930786, -0.0943053737282753], [0.47469156980514526, -0.13200673460960388, 0.13645926117897034, -0.4011839032173157, 0.509515643119812, 0.6863921284675598, -0.06042686477303505, -0.6640213131904602, 0.15966922044754028, 0.12608999013900757, 0.29786911606788635, 0.4791453182697296, 0.14910441637039185, 0.6543102264404297, 0.412423312664032, -0.126275897026062], [0.03720299154520035, 0.5272082090377808, -0.1355869621038437, -0.18610163033008575, -0.08545012027025223, 0.25370827317237854, -0.13450996577739716, -0.1255723387002945, -0.782221794128418, -0.4710850715637207, 0.4378063976764679, -0.5854189991950989, -0.04940219968557358, 0.31526243686676025, 0.06136750429868698, 0.37664666771888733], [0.3605762720108032, -0.8342575430870056, 0.5836194753646851, 0.3893229067325592, 0.27704551815986633, 0.3980298340320587, 0.27545344829559326, 0.6251544952392578, 0.2955184876918793, 0.2875986695289612, 0.44457054138183594, 0.5975669622421265, -1.0251384973526, 0.05376558378338814, 0.07391572743654251, 0.02327326312661171], [0.27033400535583496, -0.5621092319488525, 0.00612762663513422, 0.2538560926914215, 0.5624596476554871, -0.06544109433889389, 0.03524719178676605, 0.24889834225177765, 0.9510271549224854, -0.2068713903427124, -0.2775322496891022, 0.10902850329875946, 0.3616175949573517, -0.10372518002986908, -0.25954580307006836, -0.751048743724823], [1.1183637380599976, -0.7659526467323303, 0.31464117765426636, 0.14701485633850098, -1.4034030437469482, -0.003431482706218958, -0.00385731621645391, 0.9012758731842041, -0.00023783580400049686, 0.6473376154899597, -0.2874593734741211, 0.21470727026462555, -0.12274590879678726, 0.06430922448635101, -0.11634402722120285, -0.3316936790943146], [0.2489290088415146, -0.11831144243478775, 0.399640828371048, -0.39344191551208496, -0.2717544436454773, 0.4832933843135834, -0.3039638102054596, -0.4954613149166107, -0.06330764293670654, 0.1514049768447876, -0.26000046730041504, 0.14242839813232422, -0.46042191982269287, -0.37005600333213806, -0.10126988589763641, 0.29450079798698425]], "1_weights": [[-0.0963599756360054, 0.13198912143707275, 0.31257742643356323, -0.05730810388922691, -0.04300149530172348, 1.260138750076294, -0.648682713508606, 0.5386890172958374, 0.2188514620065689, -0.3606412708759308, 0.9511061310768127, -0.7648533582687378, 0.5817806124687195, -0.6244534254074097, 0.05687367543578148, -0.20447543263435364], [-0.23442134261131287, 0.6024015545845032, -0.07146714627742767, -0.6400396227836609, -0.03024645708501339, -0.4811086356639862, 0.1409461498260498, -0.7605435848236084, -0.26807913184165955, 0.2641807794570923, 0.2895760238170624, 0.5745553970336914, 0.09618105739355087, -0.18737995624542236, -0.5500835180282593, 0.3792540729045868], [0.5551729798316956, -0.15386962890625, -0.25571775436401367, 0.1305033415555954, -0.1859239935874939, 0.6940268874168396, -1.0976766347885132, 0.28266626596450806, -0.06705400347709656, 0.4829157590866089, -0.07522169500589371, 0.48711976408958435, -0.4498218297958374, -0.5734584927558899, 0.0229751318693161, 0.48704612255096436], [0.6159578561782837, 0.21455411612987518, -0.32053902745246887, 0.21209846436977386, -0.17514458298683167, -0.015454667620360851, -0.9522289037704468, -0.046579308807849884, -0.28654301166534424, -0.013265806250274181, -0.021427040919661522, -0.061921462416648865, -0.49513328075408936, 0.5023744702339172, -0.3674513101577759, 0.5720666646957397], [-0.16550515592098236, -0.8673598766326904, 0.11028655618429184, 0.5140402913093567, 0.286417156457901, 1.3712822198867798, 1.7461872100830078, 0.32716673612594604, 1.161510944366455, -1.6955839395523071, -1.1849992275238037, -0.63104647397995, 1.234872579574585, -3.371579647064209, 0.9707692265510559, -0.45242318511009216], [0.71583491563797, 0.561400294303894, -0.23947769403457642, 0.045741189271211624, -0.347380131483078, 0.6400376558303833, 0.03302023559808731, 0.387257844209671, 0.1592356264591217, 0.20634925365447998, 0.045512884855270386, 0.7671782970428467, 0.20192451775074005, -0.20185980200767517, -0.030317073687911034, 0.041606876999139786], [0.10008561611175537, 0.4465293884277344, -0.21048179268836975, 0.24049080908298492, -0.5808785557746887, 0.08926966786384583, -0.18632391095161438, -0.009108937345445156, 0.10065644234418869, -0.19195556640625, -0.14050158858299255, -0.176334947347641, 0.2345895767211914, -0.02674819715321064, 0.2726360857486725, -0.019697746261954308], [-0.03319152444601059, 0.547996461391449, 0.7022743225097656, 0.12723812460899353, 0.15494786202907562, -0.37518393993377686, 0.2814401388168335, -0.2283397763967514, -0.2344902902841568, 0.4395347237586975, -0.43450742959976196, -0.12393824011087418, 0.21159309148788452, 0.09325087070465088, -0.12162010371685028, 0.1533191204071045], [0.13263492286205292, 0.15903565287590027, 0.2456350475549698, 0.35624465346336365, 0.022479942068457603, -0.15539754927158356, 0.3797183036804199, 0.2502013146877289, -0.09484219551086426, 0.22996333241462708, -0.28339025378227234, 0.28472739458084106, -0.23633885383605957, 0.503328263759613, -0.2096758782863617, 0.5288345813751221], [0.634613573551178, 0.18800656497478485, -0.19264565408229828, 0.03494923561811447, -0.30119234323501587, -0.11472076177597046, -0.4947627782821655, -0.5164074897766113, -0.12358370423316956, 0.3136097192764282, 0.08692000806331635, 0.032795500010252, -0.5888881683349609, -0.23706981539726257, -0.08930044621229172, 0.3001246452331543], [-0.5107945799827576, -0.43640831112861633, 0.1815013885498047, 0.25183919072151184, 0.3864347040653229, 0.10845935344696045, 0.05958354100584984, -0.003273215377703309, -0.2664977014064789, -0.5372727513313293, 0.3631698191165924, -0.3096693158149719, 0.30374428629875183, -0.0021826932206749916, 0.21775859594345093, 0.22455181181430817], [0.46698179841041565, 0.5052462816238403, -0.07692375779151917, -0.47035834193229675, 0.22422562539577484, -0.233982652425766, -0.09007226675748825, 0.05052214488387108, 0.5558949708938599, 0.5173434019088745, -0.7438449859619141, 0.35395845770835876, 0.19533124566078186, 0.24999494850635529, 0.2288156896829605, 0.5498334169387817], [0.33649134635925293, 0.2451838254928589, -0.07990572601556778, -0.3186003863811493, 0.12264891713857651, -0.5395112633705139, -0.05777912214398384, 0.037202849984169006, 0.5325868725776672, -0.6838452816009521, 0.3187216818332672, 0.2460779994726181, 0.13034135103225708, 0.7099179029464722, 0.006634931080043316, 0.04768041893839836], [0.006824808660894632, -0.08844452351331711, 0.23825421929359436, 0.5304573774337769, -0.3345416784286499, -0.013134799897670746, -0.20359990000724792, 0.6948958039283752, 0.6600824594497681, -0.14024968445301056, -0.5550933480262756, -0.46946099400520325, 0.09007018804550171, -0.4938029944896698, 0.6072341799736023, -0.058783311396837234], [-0.10597330331802368, -0.14782167971134186, 0.10916886478662491, 0.08634956181049347, -0.2484169751405716, 0.4561658203601837, 0.04715856537222862, 0.056498538702726364, 0.3995996117591858, 0.20704306662082672, 0.25912025570869446, -0.05969076603651047, 0.19024032354354858, -0.4102558493614197, 0.3235337734222412, 0.22974592447280884], [-0.4381718933582306, -0.8499398827552795, -0.22167420387268066, 0.8436883687973022, -0.3509218096733093, 1.2803170680999756, 1.0859158039093018, 0.6591324210166931, 1.0283315181732178, -0.23843686282634735, -1.9003678560256958, -0.7165716886520386, 0.42924371361732483, -0.5837398767471313, 0.8158895373344421, -0.6725945472717285]], "2_weights": [[0.31791776418685913, 0.3911899924278259, 0.24799445271492004], [0.33684220910072327, 0.4298212230205536, 0.30307304859161377], [-0.396331787109375, -0.5046453475952148, 0.08974563330411911], [-0.01285524107515812, -0.0669294074177742, -0.5509752631187439], [0.2899368405342102, 0.35446903109550476, -0.06976990401744843], [-0.6731876730918884, -0.8679842948913574, -0.8992213010787964], [1.3433078527450562, 1.3784043788909912, 1.4982285499572754], [-0.2683257758617401, -0.11962376534938812, -0.23562410473823547], [-0.46022510528564453, -0.3507014513015747, 0.41399532556533813], [0.6664144396781921, 0.615172803401947, 0.33243927359580994], [0.4925367534160614, 0.532519519329071, 0.5556976199150085], [0.9441251158714294, 0.9337555766105652, 0.7730544209480286], [-0.4740350842475891, -0.24357736110687256, -0.896645724773407], [-1.5912315845489502, -1.4035980701446533, -1.2079379558563232], [-0.2616282105445862, -0.3349863588809967, -0.25227758288383484], [0.5435036420822144, 0.1943310648202896, 0.14424042403697968]], "0_bias": [0.3055140972137451, 0.043594036251306534, 0.00826228130608797, 0.20261399447917938, -0.1850387006998062, 0.3629940450191498, -0.0039240773767232895, 0.1554550975561142, 0.03406699001789093, -0.02214726246893406, 0.03987579420208931, 0.17651726305484772, 0.00047188071766868234, 0.05381369590759277, 0.06883562356233597, 0.04887494817376137], "1_bias": [0.1653805822134018, 0.1462334245443344, -0.07926259934902191, 0.0662660002708435, -0.09746552258729935, 0.0627124086022377, 0.07789937406778336, 0.013493659906089306, 0.08178622275590897, 0.1208980530500412, 0.012245865538716316, 0.22279739379882812, 0.08664050698280334, -0.08015496283769608, 0.05619025602936745, 0.17142604291439056], "2_bias": [0.17822830379009247, 0.11818385869264603, 0.03196548670530319],"obj_num": 3}