{"0_weights": [[0.1772109568119049, -0.06072532385587692, -0.28490015864372253, -0.12265322357416153, 0.37299755215644836, -0.517500638961792, -0.30831536650657654, 0.20790494978427887, -0.290836900472641, 0.08909834176301956, 0.556771457195282, 0.08993697911500931, -0.15719392895698547, 0.09895818680524826, 0.27403977513313293, 0.028440900146961212], [-0.14411281049251556, 0.4286147654056549, 0.4156970679759979, -0.5206334590911865, -0.3931765556335449, 0.06089688092470169, 0.8541843295097351, -0.401729941368103, 0.5342110991477966, 0.51920485496521, 0.11552902311086655, -0.529320240020752, -0.15466009080410004, 0.571254551410675, 0.6455258727073669, -0.5776543021202087], [-0.6730042099952698, -0.2623489797115326, -0.021497629582881927, -0.5481813549995422, 0.25214385986328125, 0.3370170295238495, -0.21600422263145447, -0.04617677256464958, -0.16270101070404053, 0.05884067714214325, -0.23001687228679657, 0.772074818611145, 0.30230000615119934, -0.06035250052809715, 0.7541725635528564, -0.22788111865520477], [-0.4147990345954895, 0.3518184423446655, -0.3076689541339874, 0.3741935193538666, -0.1971762627363205, 0.2879562973976135, -0.31737253069877625, 0.40575310587882996, -0.13787761330604553, 0.17020270228385925, -0.3819939196109772, 0.3709203004837036, 0.06986463069915771, -0.02604338526725769, -0.4152403473854065, -0.2062865048646927], [0.8162969946861267, -0.24038097262382507, 0.21816305816173553, 0.7424972653388977, -0.18327827751636505, 0.25527793169021606, -0.06758097559213638, -0.031071778386831284, 0.5245909690856934, 0.8731816411018372, 0.6535332798957825, 0.18642887473106384, 0.6654279828071594, -0.2163977026939392, 0.605766236782074, 0.4880082607269287], [0.20641903579235077, -0.42613485455513, 0.10954395681619644, -0.5820407271385193, 0.28285521268844604, 0.47077032923698425, 0.4308378994464874, -0.6007847189903259, 0.41362014412879944, 0.07850612699985504, 0.09982515126466751, 0.28842148184776306, 0.10556668043136597, 0.6731789708137512, 0.16751104593276978, -0.47415876388549805], [-0.271632581949234, 0.3397766947746277, -0.044013164937496185, -0.08277805149555206, -0.17045988142490387, 0.27522432804107666, -0.10075521469116211, -0.20637772977352142, -0.6694902181625366, -0.6539509296417236, 0.48118066787719727, -0.5361121892929077, 0.22278174757957458, 0.29632100462913513, -0.02785603702068329, 0.6509872078895569], [0.8544175624847412, -1.2145068645477295, 0.5876221060752869, -0.09442204236984253, 0.38415366411209106, 0.47724464535713196, 0.5690138339996338, 0.6281819343566895, -0.27509361505508423, 0.25499460101127625, 0.9472163915634155, 0.35021036863327026, -0.686592161655426, -0.018744967877864838, -0.08715476095676422, -0.10693502426147461], [0.2645283341407776, -0.3714091181755066, 0.0563657246530056, 0.6107019782066345, 0.10891754925251007, -0.08128546923398972, 0.4924640953540802, -0.3255552649497986, 0.40797680616378784, -0.6277132630348206, -0.29222095012664795, -0.18010203540325165, -0.3023868501186371, -0.2675473093986511, -0.1653079241514206, -0.44979649782180786], [0.05672521889209747, -0.5761082768440247, -0.8862046003341675, -0.10762529075145721, -0.7640659213066101, -0.20207126438617706, -0.1518019288778305, 0.07524259388446808, 0.03138616308569908, 0.387083500623703, -0.13696631789207458, 0.8006599545478821, 0.03679356351494789, 0.2621161937713623, -0.2724088430404663, 0.12686064839363098], [-0.19733621180057526, -0.08667249232530594, 0.16034141182899475, -0.5062592625617981, -0.05332181602716446, 0.262703537940979, -0.24576525390148163, -0.5864006280899048, -0.2956565320491791, -0.027462106198072433, 0.056748222559690475, -0.027241943404078484, -0.028436975553631783, -0.2512495815753937, -0.04835718125104904, 0.0360221229493618]], "1_weights": [[-0.03745945543050766, -0.06120896339416504, 0.2807431221008301, 0.17493827641010284, 0.21215182542800903, 0.5375555157661438, 0.26244521141052246, -0.01698801852762699, 0.009967664256691933, 0.28656476736068726, 0.6837297081947327, 0.21375153958797455, 0.3180157244205475, -0.16517587006092072, 0.0593930184841156, 0.011908226646482944], [-0.6967699527740479, 0.5294343829154968, 0.14893686771392822, -0.7384178638458252, -0.3119695782661438, -0.7011581063270569, 0.08219416439533234, -0.5891119837760925, -0.1931234747171402, 0.1661938577890396, 0.08576956391334534, 0.19096170365810394, -0.05235535651445389, -0.4050104022026062, -0.2172795981168747, 0.5016661882400513], [1.3134751319885254, -1.6552956104278564, 0.3369852602481842, 0.14750632643699646, -0.9286412596702576, 0.546503484249115, -1.9825387001037598, 1.2664979696273804, 0.1636975258588791, -1.4134126901626587, -1.880669355392456, -0.8459311723709106, 0.15285368263721466, 1.0159026384353638, 0.31347185373306274, 0.03403964638710022], [0.10553931444883347, 0.279609352350235, -0.4888603389263153, 0.2665828466415405, 0.28472691774368286, 0.3828886151313782, 0.07649009674787521, -0.68683260679245, 0.5231554508209229, 0.2832203805446625, 0.10079510509967804, 0.4616025686264038, -0.35581308603286743, 0.11758490651845932, -0.765984058380127, 0.6862207651138306], [-0.20990818738937378, -0.12767840921878815, -0.1470726877450943, -0.33618539571762085, 0.43402212858200073, -0.3457961678504944, 0.4863460958003998, 0.02072165533900261, -0.30905312299728394, 0.4457119107246399, 0.16337840259075165, 0.28388234972953796, -0.2684796452522278, -0.4534086585044861, -0.10895073413848877, -0.10128335654735565], [0.41588306427001953, 0.2809236943721771, -0.14665772020816803, 0.16159430146217346, -0.3057098090648651, 0.4418151378631592, 0.07344475388526917, 0.48003190755844116, -0.21921883523464203, -0.0016464373329654336, -0.3119643032550812, 0.31808075308799744, 0.4105771481990814, 0.22686749696731567, -0.0675220713019371, -0.4174961745738983], [0.26305174827575684, 0.354252427816391, 0.03144977614283562, 0.13026444613933563, -0.5492686629295349, 0.15135975182056427, -0.3589613735675812, 0.02160811983048916, 0.12436239421367645, -0.3301321566104889, -0.3362736701965332, -0.5931751728057861, 0.27581191062927246, 0.07450035214424133, 0.28743308782577515, -0.2895345389842987], [0.0007339198491536081, 0.5808612108230591, 0.3507736921310425, 0.33114689588546753, 0.30811771750450134, -0.12304659932851791, 0.40043604373931885, -0.18978938460350037, -0.16760362684726715, 0.5354295372962952, 0.18075497448444366, 0.10307440906763077, 0.31173431873321533, -0.3538958728313446, -0.1489323079586029, 0.026339199393987656], [0.6871459484100342, -0.5487529039382935, 0.2619495987892151, 0.31426844000816345, -0.051408469676971436, -0.06260906159877777, -0.8986124992370605, 0.7106429934501648, 0.1307280957698822, -1.488986849784851, -0.9818168878555298, -0.7852441072463989, -0.06843642890453339, 0.08413959294557571, -0.1460280567407608, 0.11315041035413742], [0.05740847438573837, 0.47843873500823975, -0.5776458978652954, -0.07056726515293121, 0.32611578702926636, -0.265669047832489, 0.8282748460769653, -0.9537199139595032, -0.05051138997077942, 0.7907913327217102, 0.24965958297252655, 0.574191689491272, -0.8239920735359192, 1.0179747343063354, -0.2858092486858368, 0.47853145003318787], [-0.31348511576652527, -0.3364868462085724, 0.08129552751779556, 0.3205825984477997, 0.6197112798690796, 0.0917491763830185, 0.3379562497138977, 0.05564039945602417, -0.3106597661972046, -0.2522311806678772, 0.4546521008014679, 0.03405029699206352, 0.31259679794311523, 0.29877182841300964, 0.24616171419620514, 0.33536937832832336], [0.046425290405750275, 0.5882091522216797, -0.1367357224225998, -0.42678147554397583, 0.5422206521034241, -0.21632006764411926, 0.2212451696395874, -0.02885875664651394, 0.22319036722183228, 0.6349690556526184, 0.2031024545431137, 0.3586467206478119, -0.06729544699192047, -0.5172491073608398, 0.11554079502820969, 0.761510968208313], [0.44947823882102966, -0.04214668273925781, 0.4845373034477234, -0.28178662061691284, 0.03686317056417465, -0.30581507086753845, -0.2711651027202606, 0.01830822229385376, 1.0334956645965576, -0.4730083644390106, 0.058446794748306274, 0.15201960504055023, -0.02789704129099846, 0.5633589029312134, 0.17947649955749512, -0.07047703862190247], [0.23484010994434357, 0.03380398824810982, 0.13882382214069366, 0.48945701122283936, -0.211459219455719, -0.11364390701055527, -0.22187483310699463, 0.5050304532051086, 0.3153301775455475, -0.11087192595005035, -0.5163172483444214, -0.33554211258888245, 0.01679155044257641, -0.09958688169717789, 0.5411302447319031, 0.14208821952342987], [0.14600077271461487, -0.07223429530858994, 0.21560777723789215, 0.06914073973894119, -0.05953924357891083, 0.43361321091651917, 0.09965997189283371, 0.22918935120105743, 0.3923734128475189, 0.3843287527561188, 0.39000385999679565, 0.10443385690450668, 0.14362895488739014, -0.2992262840270996, 0.3630436956882477, 0.06590801477432251], [0.10571792721748352, -0.10300437361001968, 0.15648207068443298, 0.9110628962516785, -0.5217260122299194, 0.48206353187561035, -0.19931553304195404, 0.11121907830238342, 0.21372336149215698, 0.13007745146751404, -0.13557107746601105, -1.1501809358596802, 0.08553828299045563, -0.30073991417884827, 0.41929134726524353, 0.043999478220939636]], "2_weights": [[-0.33340445160865784, 0.011924799531698227, 0.10853660106658936], [0.18130718171596527, 0.5006887316703796, 0.24944652616977692], [-0.1753346025943756, -0.3946846127510071, 0.1245327740907669], [-0.029132412746548653, -0.02104329690337181, -0.5499491095542908], [0.5659626126289368, 0.5465055704116821, 0.29492926597595215], [-0.12172950059175491, -0.5889142155647278, -0.539506733417511], [0.5622442364692688, 0.588297963142395, 0.6394792199134827], [-0.19166240096092224, -0.12512724101543427, -0.2666623890399933], [-0.15468215942382812, -0.23446118831634521, 0.4838351309299469], [0.38801008462905884, 0.5886440277099609, 0.44379305839538574], [0.6964989304542542, 0.1720290184020996, 0.056740902364254], [1.0035725831985474, 1.4180166721343994, 1.3651906251907349], [-0.5697399973869324, -0.0901273787021637, -0.7713915109634399], [-0.9961930513381958, -0.8757643103599548, -0.9093225002288818], [-0.16907604038715363, -0.3616624176502228, -0.3038029670715332], [0.514877200126648, 0.2570872902870178, 0.15801605582237244]], "0_bias": [-0.019028540700674057, -0.11332352459430695, -0.13366132974624634, 0.19198490679264069, 0.06525580585002899, 0.059348151087760925, -0.04548773542046547, 0.10877493768930435, -0.029562361538410187, -0.05763343721628189, 0.023804564028978348, 0.08777172863483429, 0.16059879958629608, 0.09792450815439224, -0.07114913314580917, 0.12599360942840576], "1_bias": [0.1279555857181549, 0.027857759967446327, 0.015632569789886475, 0.07281993329524994, 0.0739072784781456, 0.0986308678984642, 0.1291867196559906, 0.004820745438337326, 0.0954102948307991, 0.10838521271944046, 0.01791062392294407, 0.0027281336952000856, 0.025736086070537567, -0.006786845624446869, 0.0517369769513607, 0.016469070687890053], "2_bias": [0.0491301566362381, 0.027368435636162758, -0.0017772873397916555],"obj_num": 3}