{"0_weights": [[0.17779991030693054, 0.21801233291625977, 0.143728569149971, -0.492148756980896, 0.2202761173248291, -0.20274820923805237, -0.43322595953941345, 0.12176330387592316, -0.19917264580726624, 0.160868838429451, 0.28882914781570435, 0.010194151662290096, -0.37783083319664, 0.2296665757894516, 0.5803214311599731, 0.004994755610823631], [0.09083817154169083, 0.27543875575065613, 0.8184278011322021, -0.3619736433029175, -0.5394219160079956, -0.44066759943962097, 0.7135072350502014, -0.4731220006942749, 0.320997953414917, 0.8650596737861633, -0.003844144055619836, 0.03715086728334427, -0.3960460424423218, 0.5404039621353149, 0.6032067537307739, -0.35055026412010193], [-0.19696006178855896, -0.13511161506175995, 0.23041880130767822, -0.3348151743412018, 0.08947854489088058, 0.49743834137916565, 0.34727954864501953, -0.13358935713768005, -0.2646968960762024, 0.18489587306976318, -0.43515241146087646, 0.852750837802887, 0.0417630672454834, -0.2071049064397812, 0.6152776479721069, 0.4690636694431305], [-0.2531917691230774, 0.4345553517341614, -0.10502433776855469, 0.3914532959461212, -0.12427565455436707, 0.16631078720092773, -0.38047170639038086, 0.6665135025978088, -0.24173319339752197, 0.22601893544197083, -0.5671889781951904, 0.42425891757011414, 0.059816475957632065, -0.22469505667686462, -0.24394218623638153, -0.022814996540546417], [0.6937076449394226, 0.027316173538565636, 0.44869211316108704, 0.10191193968057632, -0.38142210245132446, 0.3284786343574524, -0.29523247480392456, -0.20294082164764404, 0.7871904969215393, 0.9165087342262268, 0.5970418453216553, 0.14092573523521423, 0.4328048527240753, -0.41392645239830017, 0.5092313885688782, 0.373469740152359], [0.49246251583099365, -0.10288936644792557, 0.24253466725349426, -0.23397238552570343, 0.2677806317806244, 0.7408284544944763, 0.03347179666161537, -0.3913261890411377, 0.1001719981431961, 0.013163783587515354, 0.4288578927516937, 0.7100619673728943, 0.820524275302887, 0.6849491000175476, 0.35660725831985474, -0.7279298901557922], [-0.2135811150074005, 0.5294873714447021, -0.3226010203361511, 0.03549283742904663, -0.3065473437309265, 0.538345992565155, -0.05736401304602623, 0.16417557001113892, -0.5165022015571594, -0.4483049809932709, 0.5950102210044861, -0.5507290363311768, 0.3262627124786377, 0.4591302275657654, -0.0801706537604332, 0.24246935546398163], [0.6672946810722351, -0.6047734618186951, 0.567154586315155, -0.23047587275505066, 0.3721442222595215, 0.4032290279865265, 0.6032019853591919, 0.4116345942020416, -0.02191018871963024, 0.3024959862232208, 0.35477933287620544, 0.4178412854671478, -0.6295738220214844, -0.11406490951776505, 0.057239845395088196, -0.08453155308961868], [0.95330810546875, -1.149449110031128, 0.2564379572868347, 0.10251031070947647, 0.3101995587348938, -0.0889335498213768, 0.8664102554321289, -0.8705539107322693, 1.3884351253509521, -0.37004554271698, 0.49703821539878845, 0.13427487015724182, -0.08472811430692673, -0.5538455247879028, -0.04690774902701378, -1.290229320526123], [-0.08179090917110443, -1.2216640710830688, 0.38806208968162537, -0.49578529596328735, -1.1698189973831177, 0.3041715621948242, -0.6870487332344055, -0.028633616864681244, 0.7217023372650146, 0.2175988256931305, -0.03128203749656677, 0.46515345573425293, 0.2722342312335968, 0.15570980310440063, -0.39115574955940247, 0.5209963321685791], [0.06660804897546768, 0.10986988991498947, 0.1284816712141037, -0.6911063194274902, -0.1184358298778534, 0.4173792600631714, -0.0643894299864769, -0.45966795086860657, -0.20238184928894043, -0.1553889513015747, -0.23273217678070068, -0.14976032078266144, -0.18408124148845673, -0.37452250719070435, -0.3586709201335907, -0.03138841316103935]], "1_weights": [[-0.05565328150987625, 0.2767585813999176, -0.10870271921157837, 0.028815388679504395, 0.522908627986908, 0.4536021947860718, 0.16640454530715942, -0.12457437068223953, 0.04425735026597977, 0.44426631927490234, 0.6299210786819458, 0.34555384516716003, -0.11248723417520523, -0.44814643263816833, -0.18036384880542755, -0.2001412808895111], [-0.5339533090591431, 0.26722872257232666, -0.964930534362793, -0.12050892412662506, 0.8283928632736206, 0.151961088180542, -0.26992303133010864, -0.3073549270629883, -0.005419096443802118, 0.17078092694282532, 2.180238962173462, 0.48643842339515686, -0.27524250745773315, -0.44026821851730347, -1.3022778034210205, 0.902260422706604], [0.34817397594451904, -0.1805816888809204, -0.3983095586299896, -0.07172992080450058, 0.07061253488063812, 0.3397767245769501, -0.3436179459095001, 0.011004908941686153, 0.1353621780872345, 0.40101516246795654, 0.4499848186969757, 0.4163907766342163, -0.599690318107605, -0.47941502928733826, -0.14291876554489136, 0.5079782605171204], [0.5206429958343506, 0.1656389832496643, 0.14203888177871704, 0.09086357057094574, -0.0646996721625328, -0.1825207769870758, -0.38680869340896606, 0.4826854169368744, 0.05569373071193695, -0.04564424976706505, -1.743691325187683, -0.1390484869480133, -0.06346466392278671, 0.687494695186615, -0.29234689474105835, -0.05437441170215607], [0.04130035638809204, -0.2326487898826599, -0.7292802333831787, -0.2812109589576721, 0.6508671045303345, -0.03609969839453697, 0.2873171269893646, -0.369236022233963, -0.021125469356775284, 0.27291351556777954, 2.057208299636841, 0.6390616297721863, -0.36018818616867065, -0.7781400680541992, -1.3231006860733032, 0.27595973014831543], [0.17453809082508087, 0.3928550183773041, -0.22908951342105865, 0.23111407458782196, -0.01987956278026104, 0.7163493037223816, -0.03299451619386673, 0.4353371262550354, -0.033927418291568756, -0.519021213054657, 0.10759162902832031, 0.6952701807022095, 0.4886151850223541, 0.03437406197190285, 0.15516512095928192, -0.29781845211982727], [-0.4242725670337677, 0.09773729741573334, 0.4754118323326111, 0.3288423717021942, -0.4693228304386139, 0.34453848004341125, -0.2547973394393921, 0.46668729186058044, -0.2449495792388916, -0.6420730948448181, -1.1341266632080078, -0.6530283689498901, 0.612316370010376, 0.38040247559547424, -0.47393739223480225, -0.5394555926322937], [0.06903020292520523, 0.6214953660964966, 0.5375846028327942, 0.4260215163230896, 0.16921445727348328, -0.36581459641456604, 0.20034673810005188, 0.115831658244133, -0.4379642605781555, 0.3956751227378845, -0.9217392802238464, -0.1836102455854416, 0.47730204463005066, 0.10976314544677734, 0.08067889511585236, -0.16370084881782532], [-0.08844675123691559, -0.2450239658355713, -0.2700470983982086, 0.53387850522995, 0.7097317576408386, 0.40866678953170776, -0.41297945380210876, 0.4875454008579254, 0.09830921143293381, 0.3519251346588135, 1.1405246257781982, 0.4857025742530823, -0.11794224381446838, -0.1924886703491211, -1.305108904838562, 0.03195420652627945], [0.3022593557834625, -0.01913265325129032, -0.15700317919254303, 0.2623211443424225, -0.6309773921966553, -0.10753347724676132, 0.11289369314908981, -0.6066314578056335, 0.004006481263786554, 0.3398325741291046, 0.3816608488559723, 0.14125728607177734, -0.38596078753471375, 0.07995858043432236, 0.09944716095924377, 0.2608126401901245], [-0.48391416668891907, -0.41724321246147156, 0.040720272809267044, 0.4234263300895691, 0.4790842533111572, 0.15017005801200867, 0.18423065543174744, 0.18351617455482483, -0.5263713598251343, -0.37441137433052063, 0.42122235894203186, -0.10930176079273224, 0.5699469447135925, 0.472707599401474, 0.23058854043483734, 0.26514971256256104], [0.3650597631931305, 0.518274188041687, -0.053578536957502365, -0.4318120777606964, 0.34443914890289307, -0.29110369086265564, -0.1723668873310089, 0.007955502718687057, 0.51246178150177, 0.5275725722312927, 0.05243954062461853, 0.002784118289127946, 0.08825118839740753, 0.037393201142549515, 0.243144229054451, 0.7878209948539734], [0.30299291014671326, 0.04093062877655029, 0.6038984060287476, -0.27150362730026245, 0.19142469763755798, -0.3531615436077118, -0.5227373242378235, 0.3887574076652527, 0.5266683101654053, -0.4909847378730774, -0.21501924097537994, 0.11579498648643494, 0.3129173517227173, 0.7387595176696777, 0.18484625220298767, -0.34160923957824707], [0.06222948059439659, -0.08940650522708893, 0.33809348940849304, 0.40941065549850464, -0.794764518737793, 0.03737935423851013, -0.2669242322444916, 0.6475883722305298, 0.5310053825378418, -0.06005892530083656, -0.6331475973129272, -0.2662142813205719, 0.10539525747299194, 0.3413458466529846, 0.7388446927070618, 0.3265019953250885], [-0.11919327825307846, -0.013678421266376972, -0.07967749238014221, 0.0325920544564724, -0.1968822330236435, 0.4750444293022156, -0.11438187956809998, -0.1681322157382965, 0.34104418754577637, 0.37565287947654724, 0.23355311155319214, -0.033097606152296066, -0.1970558613538742, -0.3478471040725708, 0.33596062660217285, 0.3697158694267273], [-0.20877285301685333, -0.08264168351888657, -0.5571507811546326, 0.7950215935707092, -0.7824319005012512, -0.008432537317276001, -0.14448444545269012, 0.3590390384197235, 0.37636658549308777, 0.472202867269516, 2.0099775791168213, 0.1705280840396881, -0.040139179676771164, -0.40657687187194824, -1.486639380455017, 0.3420414924621582]], "2_weights": [[0.05047524720430374, 0.47983667254447937, 0.4036136269569397], [0.025895580649375916, 0.4890868663787842, 0.20257802307605743], [0.4636133909225464, -0.5877628326416016, -0.6197745203971863], [-0.017251117154955864, -0.007523107808083296, -0.544044017791748], [0.8584515452384949, 0.9545565247535706, 0.8433008193969727], [-0.19043435156345367, -0.5335876941680908, -0.5580187439918518], [0.19482573866844177, 0.28258016705513, 0.4302292764186859], [-0.3590205907821655, -0.15105846524238586, -0.04201101139187813], [0.16045932471752167, -0.20207947492599487, 1.0111724138259888], [0.409359335899353, 0.585827112197876, 0.37001362442970276], [0.9247186779975891, -0.5412103533744812, -0.582841694355011], [0.733334481716156, 1.0753812789916992, 1.0033867359161377], [-0.7692831158638, -0.3166937530040741, -0.9398386478424072], [-0.8130707144737244, -0.35685238242149353, -0.06066115200519562], [-1.0120689868927002, -1.0214101076126099, -1.2863088846206665], [0.5706006288528442, -0.044295769184827805, -0.015251703560352325]], "0_bias": [0.07033217698335648, -0.11478915810585022, -0.07488346099853516, 0.46440446376800537, -0.07370650768280029, 0.034928079694509506, -0.006284624338150024, 0.2510649859905243, -0.10232003778219223, -0.022888176143169403, 0.20086953043937683, 0.0528743602335453, 0.3372698724269867, 0.1910255253314972, -0.07414650917053223, 0.07417794317007065], "1_bias": [-0.000877255923114717, 0.015896212309598923, 0.18040719628334045, 0.14594988524913788, -0.043000999838113785, 0.15317979454994202, -0.04792976379394531, 0.1406109780073166, 0.0994185283780098, -0.014330889098346233, -0.25370052456855774, -0.1640423834323883, 0.2023109495639801, 0.32563066482543945, 0.06937748938798904, 0.010328573174774647], "2_bias": [-0.021890314295887947, -0.05399595573544502, -0.14791956543922424],"obj_num": 3}