{"0_weights": [[-0.30943119525909424, -0.0417872779071331, -0.42059850692749023, -0.22280360758304596, 0.388502299785614, -0.8154423832893372, -0.3219223618507385, 0.16416972875595093, -0.14199773967266083, -0.20715349912643433, 0.9103373885154724, 0.32726117968559265, -0.07996947318315506, 0.2454622983932495, -0.1154402494430542, -0.2929939031600952], [-0.2898065149784088, 0.2929621934890747, 0.4272220730781555, -0.37324896454811096, -0.44437146186828613, 0.10414104163646698, 0.6016845703125, -0.4057586193084717, 0.2755126357078552, 0.5631470084190369, 0.015609084628522396, -0.37104493379592896, -0.15502522885799408, 0.5512864589691162, 0.43049895763397217, -0.695429801940918], [0.19567112624645233, 0.2493247538805008, 0.3589792847633362, -0.30003926157951355, 0.36132028698921204, 0.6649764776229858, 0.21786266565322876, -0.17977404594421387, -0.4548134207725525, 0.15578360855579376, -0.2668660879135132, 0.6262521743774414, -0.44241365790367126, -0.3086465299129486, -0.07121267914772034, 0.5186699628829956], [-0.2146390676498413, 0.2767847180366516, 0.21869230270385742, 0.6291182637214661, -0.18385815620422363, 0.42930641770362854, -0.27812784910202026, 0.6257286071777344, -0.42005011439323425, -0.024685947224497795, -0.3021352291107178, 0.41331174969673157, 0.01544297207146883, 0.0304420106112957, -0.4814569056034088, -0.13840888440608978], [1.0534404516220093, 0.2558276653289795, 0.6821821928024292, 0.37939804792404175, 0.037645865231752396, 0.5557559132575989, 0.07175108045339584, 0.00782882422208786, 0.7450137734413147, 0.4412896931171417, 0.603441596031189, -0.08683517575263977, 0.673249363899231, -0.2615564465522766, 0.6477459669113159, -0.44132906198501587], [0.4724973440170288, -0.35448622703552246, -0.06772151589393616, -0.7311047911643982, 0.35201364755630493, 0.49119889736175537, 0.49930939078330994, -0.6625800728797913, 0.2860666811466217, -0.2696658670902252, 0.27839726209640503, 0.16220985352993011, 0.16908149421215057, 0.7931280732154846, 0.2413768470287323, -0.38604050874710083], [-0.14899778366088867, 0.21716904640197754, -0.6121759414672852, -0.029431842267513275, -0.11527489125728607, 0.3069324195384979, -0.04493982717394829, -0.12226139008998871, -0.6933289170265198, -0.36395472288131714, 0.2616092264652252, -0.5960851311683655, 0.07922247052192688, 0.2761029303073883, 0.1157560870051384, 0.36754193902015686], [0.2828768193721771, -0.7718649506568909, 0.14348268508911133, 0.07811248302459717, 0.24545647203922272, 0.28597936034202576, 0.6017557382583618, 0.4004690945148468, 0.21165941655635834, 0.12735959887504578, 0.8613623380661011, 0.20766125619411469, -0.6600717306137085, 0.10454660654067993, -0.30457863211631775, 0.003711435478180647], [0.358852356672287, -0.6454420685768127, 0.10984709858894348, 0.2898252010345459, 0.012624419294297695, -0.4579060673713684, 0.5064959526062012, -0.28069525957107544, 0.7438356876373291, -0.284677654504776, 0.26945367455482483, -0.7627329230308533, 0.011960670351982117, -0.10241134464740753, 0.3866002559661865, -0.9678205251693726], [-1.292159080505371, -1.0773389339447021, -0.6270950436592102, -0.42378073930740356, -0.9863724112510681, 0.1726149618625641, 0.20491227507591248, 0.02166183851659298, 0.4243068993091583, 0.7195836901664734, 0.02995702438056469, 0.22914066910743713, -1.041586995124817, 0.5349962115287781, 0.1806017905473709, -0.07982944697141647], [-0.22596967220306396, -0.10570389032363892, -0.057103272527456284, -0.5300866365432739, -0.15541444718837738, 0.2641230821609497, -0.1376171112060547, -0.5967336893081665, -0.0922212079167366, -0.09105437248945236, -0.20190438628196716, -0.10137031227350235, -0.19322781264781952, -0.15607979893684387, -0.21375857293605804, 0.16740812361240387]], "1_weights": [[0.5360421538352966, 0.4593835771083832, 0.10100632160902023, -0.2634486258029938, 0.23695270717144012, 0.35992926359176636, 0.40928956866264343, 0.07381049543619156, 0.4601220190525055, 1.0925673246383667, 0.7623986005783081, 0.833894670009613, 0.2551957964897156, 0.01381577830761671, 0.011871867813169956, -0.0681397020816803], [-2.61837100982666, -0.33688661456108093, 0.48231756687164307, -0.513041615486145, -0.2333124428987503, 0.49199652671813965, -1.16215980052948, -0.06395363807678223, 0.07538015395402908, -1.3516958951950073, -1.1453150510787964, -0.5685442090034485, 0.48796510696411133, 0.18239136040210724, -0.08885893225669861, 0.01935880072414875], [0.6486449241638184, -0.42758166790008545, 0.3039584755897522, 0.024623097851872444, -0.2785140573978424, 0.3863458037376404, -0.37280306220054626, 0.6535916924476624, 0.10459426045417786, -0.3343004584312439, 0.583159327507019, 0.3709273934364319, -0.1981133222579956, 0.09653211385011673, 0.13402459025382996, -0.15050287544727325], [0.2836019694805145, 0.33381223678588867, -0.3170544505119324, 0.22812676429748535, 0.364068865776062, -0.5813952088356018, 0.18837575614452362, -0.3620279133319855, 0.38680893182754517, 0.3346608579158783, -0.22493286430835724, 0.42178279161453247, -0.4893158972263336, 0.12250759452581406, -0.4217562973499298, 0.752774178981781], [0.5721995830535889, 0.0846225842833519, -0.14233000576496124, -0.15290305018424988, 0.5767585635185242, -0.682249128818512, 0.4388984739780426, -0.5236937999725342, 0.19898958504199982, 0.400873601436615, 0.26073193550109863, 0.20594199001789093, -0.3056439459323883, -0.3136599361896515, 0.013236502185463905, 0.08880049735307693], [0.5712838768959045, 0.18410834670066833, 0.3772535026073456, 0.07070895284414291, -0.3613453507423401, 0.7255930304527283, -0.10358314216136932, 0.7269567847251892, 0.07314113527536392, -0.11574594676494598, 0.12077861279249191, 0.6610300540924072, 0.5125418305397034, 0.4950120747089386, 0.2387973666191101, -0.51392662525177], [-0.02561691403388977, 0.3401591181755066, -0.1858677864074707, 0.02107217162847519, -0.5011398196220398, 0.00996175967156887, -0.20028266310691833, -0.05408933386206627, -0.3022976815700531, -0.37380072474479675, -0.1378009021282196, -0.2517581880092621, 0.20963431894779205, 0.16677246987819672, 0.15906073153018951, -0.2527989149093628], [-0.17058932781219482, 0.5350730419158936, 0.1941274106502533, 0.3884374499320984, 0.46171125769615173, -0.42667046189308167, 0.4614432156085968, -0.272571861743927, -0.3164421021938324, 0.4381067454814911, -0.13169331848621368, 0.03345810994505882, 0.17030905187129974, -0.2912881672382355, -0.19734472036361694, 0.18022699654102325], [-0.037881698459386826, -0.37270236015319824, 0.474302738904953, 0.23069743812084198, 0.13503016531467438, 0.1948736310005188, -0.6057576537132263, 0.5779649019241333, -0.2570338845252991, -0.008064431138336658, -0.5103145837783813, -0.0209231898188591, 0.15602776408195496, 0.6133591532707214, -0.09344150871038437, 0.12122809141874313], [0.5918323993682861, 0.1584864854812622, -0.4239383339881897, -0.022652672603726387, -0.06550902128219604, -0.0007454473525285721, 0.46770039200782776, -0.20450708270072937, 0.16315633058547974, 0.33211416006088257, 0.18614350259304047, 0.14792227745056152, -0.49568432569503784, 0.2349931299686432, -0.068733811378479, -0.0030642757192254066], [-0.46911707520484924, -0.3603861629962921, 0.16702517867088318, 0.3182350695133209, 0.5826581716537476, 0.018702197819948196, 0.27652814984321594, 0.056687504053115845, -0.5013808608055115, -0.400125652551651, 0.24074722826480865, -0.16922296583652496, 0.34015434980392456, 0.42999982833862305, 0.264401912689209, 0.29150864481925964], [0.44123375415802, 0.4368019700050354, -0.060445237904787064, -0.4996195137500763, 0.43036991357803345, -0.3188328444957733, -0.005478836130350828, -0.1854817271232605, 0.481395959854126, 0.4891420602798462, 0.18232153356075287, -0.156267911195755, -0.03805330768227577, -0.14277003705501556, 0.15175564587116241, 0.6996327638626099], [-4.752154350280762, 0.08396963030099869, 0.07298731058835983, -0.12919674813747406, 0.38525041937828064, 0.2445632368326187, -0.41227325797080994, 0.587211012840271, -1.0738623142242432, -1.9808287620544434, -1.8256696462631226, -1.6030539274215698, 0.38729622960090637, 0.5174861550331116, 0.2990359365940094, -0.028343046084046364], [-0.1157742440700531, 0.02118876948952675, 0.29616159200668335, 0.3237455189228058, -0.15148523449897766, 0.03889041393995285, -0.29716768860816956, 0.5919129252433777, 0.4511496126651764, -0.22818152606487274, -0.569656252861023, -0.4353896379470825, -0.05052221938967705, 0.030213773250579834, 0.5901694297790527, 0.13143858313560486], [0.17855755984783173, -0.34763869643211365, 0.019421549513936043, 0.035553351044654846, 0.049448832869529724, 0.3255535960197449, 0.05203023552894592, 0.06662999838590622, 0.3047441840171814, 0.745087742805481, 0.14220328629016876, 0.3115566372871399, 0.11818737536668777, -0.2812761664390564, 0.24905629456043243, 0.21798452734947205], [-1.588709831237793, -0.896760106086731, 1.1950891017913818, 1.7837271690368652, -0.9843690395355225, -0.01995496079325676, -0.9992029666900635, 0.5222091674804688, -1.23261296749115, -0.3382025361061096, 0.30802977085113525, 0.3356378972530365, 0.7476378083229065, 0.25677725672721863, 1.0470337867736816, 0.017821166664361954]], "2_weights": [[0.575432538986206, 0.6540983319282532, 0.8158829808235168], [0.28126099705696106, 0.4116528630256653, 0.3269048035144806], [-0.14276617765426636, -0.44626277685165405, 0.09890876710414886], [-0.009836524724960327, -0.11837583035230637, -0.40361374616622925], [0.7628929018974304, 0.44439175724983215, 0.04935282841324806], [-0.05605291202664375, -0.7469931840896606, -0.8962907791137695], [0.7993695139884949, 0.5693254470825195, 0.7176794409751892], [-0.32567474246025085, 0.012352471239864826, -0.3253287672996521], [0.26518210768699646, 0.5045373439788818, 1.144437313079834], [2.184016227722168, 1.696565866470337, 0.3328979015350342], [0.42429858446121216, 0.3038684129714966, 1.2738484144210815], [0.6404737830162048, 1.2438825368881226, 1.1925957202911377], [-0.6196630001068115, -0.25939661264419556, -0.6912692189216614], [-0.5466359853744507, -0.4653680920600891, 0.08061216026544571], [-0.2574225962162018, -0.30830663442611694, -0.08907966315746307], [0.5916878581047058, 0.19826120138168335, 0.00930845458060503]], "0_bias": [0.015293539501726627, -0.14603446424007416, -0.18410581350326538, 0.05142398551106453, 0.061525482684373856, 0.05889182165265083, -0.046802446246147156, 0.12095636129379272, 0.06148260086774826, 0.01148802600800991, 0.1638297289609909, 0.09879904985427856, 0.1009172722697258, 0.10757714509963989, -0.1595514416694641, 0.09841848909854889], "1_bias": [0.006164219230413437, 0.11241623014211655, -0.14474043250083923, -0.031049398705363274, 0.14715775847434998, 0.17499519884586334, 0.14589117467403412, 0.09934698045253754, 0.0687844455242157, -0.014140213839709759, -0.18443983793258667, -0.03728112578392029, -0.021301863715052605, 0.08223409950733185, 0.034190382808446884, 0.11428554356098175], "2_bias": [-0.010437054559588432, 0.20051272213459015, 0.06146205961704254],"obj_num": 4}