{"0_weights": [[0.255064994096756, 0.2011507898569107, -0.05429707467556, -0.32669568061828613, 0.5924718379974365, -0.3425446152687073, -0.5266236662864685, -0.019291864708065987, -0.13565538823604584, -0.0814061239361763, 0.3868175745010376, -0.23230715095996857, -0.31692269444465637, 0.19881750643253326, 0.24908395111560822, 0.03227370232343674], [0.07571453601121902, 0.5787808299064636, 0.560040295124054, -0.07337299734354019, -0.38069459795951843, 0.4426443576812744, 0.8404374718666077, -0.39579373598098755, 0.165479838848114, 0.6534130573272705, 0.06519250571727753, -0.015733815729618073, -0.3419930636882782, 0.7379734516143799, 1.240715742111206, -0.2827441394329071], [-0.38024070858955383, 0.0031990637071430683, 0.2464841604232788, -0.34698864817619324, 1.1858071088790894, 0.6081945300102234, -0.7192597389221191, 0.5142325758934021, -0.5237105488777161, 0.7078315019607544, -1.0384639501571655, 0.8782914280891418, -0.14593373239040375, -0.9245288968086243, 0.09086038917303085, -0.23372305929660797], [-0.07133284211158752, 0.266756534576416, 0.07031439244747162, 0.25686049461364746, -0.09461938589811325, 0.6775264739990234, -0.22900675237178802, 0.3059544265270233, -0.2662247121334076, 0.08307882398366928, -0.5141760110855103, 0.272845596075058, -0.0390586294233799, -0.21276813745498657, -0.27610698342323303, -0.3114107847213745], [0.43254169821739197, 0.1294395625591278, 0.3234553933143616, 0.606296718120575, -0.15291312336921692, -0.2365284115076065, -0.2871989607810974, 0.14832010865211487, 0.6333810091018677, 0.8992230296134949, 0.4701208770275116, 0.27427437901496887, 0.30072301626205444, -0.4492316246032715, 0.6185992956161499, -0.09910106658935547], [0.6753058433532715, -0.27954724431037903, -0.1279420405626297, -0.29466724395751953, 0.3489697277545929, 0.6773862838745117, 0.5062540173530579, -0.3723735213279724, 0.3342815637588501, 0.01699860766530037, 0.39973002672195435, 0.39904218912124634, -0.08769296109676361, 0.7549419403076172, 0.333855003118515, -0.23035477101802826], [0.1391473263502121, 0.49502891302108765, -0.1329522430896759, -0.24415726959705353, 0.09588557481765747, 0.5120289325714111, -0.20237165689468384, -0.2637854516506195, -0.6994510293006897, -0.5346078872680664, 0.48042479157447815, -0.6168670058250427, 0.007701656315475702, 0.3721868693828583, 0.09992163628339767, 0.7758327126502991], [0.7057042717933655, -0.8533955216407776, 0.31409284472465515, 0.011486592702567577, 0.29937657713890076, 0.46246981620788574, 0.6443309783935547, 0.4752514362335205, 0.116085484623909, 0.17824314534664154, 0.4504035711288452, 0.36077892780303955, -0.7867085933685303, 0.11406300216913223, -0.34613263607025146, 0.12293043732643127], [0.339212030172348, -0.4250933527946472, 0.09148772805929184, -0.14921601116657257, 0.27879324555397034, -0.5008711218833923, 0.29822787642478943, -0.23011687397956848, 0.5425341129302979, -0.4625139832496643, -0.2746025621891022, -0.36310890316963196, 0.00201043882407248, -0.21016733348369598, -0.12576010823249817, -0.18464024364948273], [0.34162306785583496, -0.030946170911192894, -0.921531081199646, -0.001186475856229663, -0.4904669225215912, 0.6214926242828369, 0.34274446964263916, -0.27474042773246765, -0.470241516828537, 0.2857939302921295, 0.05294105038046837, -0.06712304800748825, -0.2929815948009491, 0.4318980574607849, 0.4732736051082611, 0.9951223134994507], [0.19009627401828766, 0.07449638098478317, 0.11166814714670181, -0.4618918001651764, -0.2204446792602539, 0.21503838896751404, -0.1396874189376831, -0.5902287364006042, -0.27503275871276855, -0.03278926759958267, -0.2271692454814911, 0.06041090935468674, 0.2022837996482849, -0.19998115301132202, 0.05030921474099159, -0.14906781911849976]], "1_weights": [[-0.004432810936123133, 0.23238889873027802, 0.3408506214618683, 0.16275142133235931, 0.09830678254365921, 0.49765369296073914, 0.1067495197057724, -0.0014672874240204692, -0.2691594958305359, 0.5090503692626953, 0.48407816886901855, 0.2697942852973938, 0.4256902039051056, -0.29854804277420044, 0.2539327144622803, 0.048267021775245667], [-0.3376033306121826, 0.6008253693580627, -0.06366201490163803, -0.4368053674697876, -0.2321494072675705, -0.3484087288379669, 0.1862642616033554, -0.8537138104438782, -0.07273101061582565, 0.16966859996318817, 0.7267161011695862, -0.100196972489357, 0.011934853158891201, -0.3050380349159241, -0.43101659417152405, 0.5414333939552307], [0.6939751505851746, 0.17664557695388794, -0.4653986394405365, 0.05214313417673111, 0.012346423231065273, -0.12885239720344543, 0.0873115062713623, 0.021208375692367554, -0.06916707009077072, 0.7624984383583069, 0.6302621960639954, 1.0406568050384521, -0.559807300567627, -0.4553014636039734, -0.32787632942199707, 0.6715697050094604], [0.44621315598487854, 0.04775826260447502, -0.33794236183166504, 0.0364060141146183, -0.12330283969640732, 0.14671240746974945, -0.24677662551403046, 0.0049384580925107, -0.2093355506658554, 0.06824355572462082, -0.15493160486221313, -0.2553028166294098, -0.16026853024959564, 0.33308860659599304, -0.3399869203567505, 0.4654865264892578], [0.03495809808373451, -0.42369410395622253, 0.28821492195129395, -0.5184178352355957, 0.33110323548316956, -0.2269522100687027, 0.4158213138580322, 0.22304710745811462, -0.3337547481060028, -0.16825202107429504, -0.23115092515945435, -0.08580411225557327, 0.05699637159705162, -0.30526310205459595, 0.012917676009237766, -0.4920691251754761], [0.5383610725402832, 0.5125060677528381, -0.140531986951828, -0.07720552384853363, -0.4642380475997925, 0.37059661746025085, 0.08722086250782013, 0.44491031765937805, 0.010634254664182663, -0.039879780262708664, 0.21162492036819458, 0.6984997391700745, 0.3881377577781677, -0.08836839348077774, -0.03586522862315178, -0.21049702167510986], [0.14919918775558472, 0.6383673548698425, -0.26268717646598816, 0.1249149888753891, -0.6093887686729431, -0.0976235643029213, -0.18660685420036316, -0.07771483808755875, -0.12250296771526337, -0.011125111021101475, -0.03193012624979019, -0.11319202929735184, 0.2659758925437927, -0.09844700247049332, 0.16255635023117065, -0.01562649942934513], [-0.026801740750670433, 0.4289616644382477, 0.5051484704017639, 0.11333063244819641, 0.24404694139957428, -0.24691782891750336, 0.2998107671737671, -0.0608697235584259, -0.5329261422157288, 0.41551709175109863, 0.02220376394689083, -0.08145083487033844, 0.38365253806114197, -0.1825161725282669, -0.13436797261238098, -0.0012882646406069398], [0.18175524473190308, 0.17802707850933075, 0.09126898646354675, 0.28380417823791504, 0.3234597146511078, -0.0009005383471958339, -0.22194591164588928, 0.1316257268190384, -0.02940862998366356, 0.25698524713516235, 0.018854282796382904, -0.014225665479898453, -0.14335843920707703, 0.2104719877243042, -0.2539089322090149, 0.627300500869751], [0.5210726261138916, 0.10061550885438919, -0.21873053908348083, 0.08400389552116394, -0.4138607382774353, -0.38122057914733887, 0.4552663266658783, -0.5756849646568298, -0.09357045590877533, 0.4066367745399475, 0.5153078436851501, 0.16084223985671997, -0.5870524048805237, -0.025264974683523178, -0.08383902907371521, 0.2468460649251938], [-0.44849181175231934, -0.4111781120300293, 0.20476387441158295, 0.364978551864624, 0.5218604207038879, 0.1978321671485901, -0.006521763280034065, 0.21718479692935944, -0.4546220004558563, -0.43146950006484985, 0.16452306509017944, -0.2013626992702484, 0.4699433445930481, 0.1180684044957161, 0.33522993326187134, 0.23577360808849335], [0.3712840676307678, 0.4931277334690094, 0.02078939974308014, -0.4453725516796112, 0.05995442718267441, -0.4235383868217468, 0.08830180764198303, -0.038076240569353104, 0.15433765947818756, 0.491598516702652, 0.04856325685977936, 0.14768946170806885, 0.01446391548961401, -0.26654815673828125, 0.08431558310985565, 0.7136516571044922], [0.22219005227088928, 0.10897944122552872, 0.012193191796541214, 0.111208975315094, 0.24262483417987823, -0.3416177034378052, -0.38273555040359497, 0.2394738793373108, 0.15624362230300903, -0.5252041816711426, 0.08771713078022003, 0.1403154581785202, 0.18917147815227509, 0.2549521327018738, 0.142350971698761, 0.044167909771203995], [0.010317560285329819, -0.03136957809329033, 0.2658730745315552, 0.611707866191864, -0.24625332653522491, 0.10353045165538788, -0.3673892617225647, 0.7003018260002136, 0.3651871979236603, -0.1868065744638443, -0.7165573239326477, -0.2763238549232483, 0.16836948692798615, -0.22965815663337708, 0.7254101037979126, 0.13488644361495972], [-0.0719282403588295, -0.04857640713453293, 0.17627227306365967, 0.10644878447055817, -0.2634800672531128, 0.364320307970047, -0.05664396286010742, -0.028941845521330833, 0.06769666075706482, 0.28963643312454224, 0.5079749822616577, 0.09530292451381683, 0.12426035106182098, -0.5358276963233948, 0.3070087432861328, 0.3911506235599518], [0.06311426311731339, -0.16402995586395264, 0.2683417797088623, 0.4861338138580322, -1.018660306930542, 0.5740808844566345, 0.040459394454956055, 0.244273841381073, 0.10161817073822021, 0.22575126588344574, -0.1048043742775917, -0.38426148891448975, 0.06760430335998535, -0.38024505972862244, 0.37882474064826965, -0.17650607228279114]], "2_weights": [[0.20149163901805878, 0.299541711807251, 0.24693535268306732], [0.30194854736328125, 0.4130570590496063, 0.21186420321464539], [-0.33980944752693176, -0.5417484641075134, 0.07253020256757736], [-0.24124406278133392, -0.10923364758491516, -0.5025114417076111], [0.9263785481452942, 1.132677674293518, 0.7876971960067749], [-0.3215910494327545, -0.6344634294509888, -0.44918352365493774], [-0.12697173655033112, 0.06355540454387665, 0.7698917984962463], [-0.16306985914707184, -0.09839252382516861, -0.1698797047138214], [-0.014397320337593555, -0.27358102798461914, 0.32210657000541687], [0.18505403399467468, 0.5214431285858154, 0.2134188562631607], [0.6468437910079956, 0.17847657203674316, 0.37337902188301086], [0.5750415921211243, 0.7150532603263855, 0.44855156540870667], [-0.6534736752510071, -0.18642111122608185, -0.723379373550415], [-0.23849691450595856, -0.25803402066230774, 0.12606792151927948], [-0.2515827715396881, -0.329845666885376, -0.37334534525871277], [0.5927319526672363, 0.16266684234142303, -0.11307499557733536]], "0_bias": [-0.04989154636859894, 0.02348228730261326, -0.030763307586312294, 0.1765594482421875, 0.014922638423740864, 0.13092239201068878, -0.03746452182531357, 0.08692538738250732, 0.08411750197410583, 0.08495604246854782, 0.07646404951810837, 0.08346739411354065, -0.10625403374433517, 0.017129847779870033, 0.13488611578941345, 0.1518755406141281], "1_bias": [0.1090557724237442, 0.052585721015930176, 0.0247633159160614, -0.037891607731580734, 0.003686068346723914, 0.03602229431271553, -0.013926149345934391, 0.04364573210477829, -0.07605857402086258, 0.0610552541911602, 0.09535160660743713, 0.038177065551280975, 0.10328542441129684, -0.08117508888244629, 0.06352322548627853, 0.17489270865917206], "2_bias": [0.07899761199951172, -0.05240124091506004, -0.03702922537922859],"obj_num": 7}