{"0_weights": [[-0.03836888447403908, 0.14138783514499664, 0.09021934121847153, -0.23699834942817688, 0.2096070647239685, -0.6768674850463867, -0.5494695901870728, 0.23730076849460602, -0.48571309447288513, 0.07017099112272263, 0.333642840385437, -0.07958193868398666, -0.14964254200458527, 0.035521626472473145, 0.12965376675128937, -0.1967431604862213], [-0.5349131226539612, 0.3226112723350525, 0.8435032963752747, -0.19485312700271606, -0.6961526870727539, -0.038815781474113464, 0.6228076219558716, -0.32873398065567017, 0.45801225304603577, 0.5261479616165161, 0.11831430345773697, -0.30000317096710205, -0.08493172377347946, 0.8040013909339905, 0.2957114577293396, -0.08649704605340958], [-0.48338648676872253, 0.07394716888666153, -0.2134287804365158, -1.0249855518341064, 0.3475671708583832, 0.49113988876342773, 0.040349625051021576, -0.595733642578125, -0.1053241640329361, -0.026957569643855095, -0.4691199064254761, 1.0829838514328003, -0.1482214480638504, -0.2229713797569275, 0.9579953551292419, 0.09599258005619049], [-0.1387540102005005, 0.4261578619480133, 0.059561192989349365, 0.34618523716926575, -0.21261577308177948, 0.7483118176460266, -0.33654478192329407, 0.2565290033817291, -0.30439698696136475, 0.15005917847156525, -0.7633227109909058, 0.2949598431587219, 0.09697044640779495, -0.12720058858394623, -0.17741042375564575, -0.4142914116382599], [0.6746710538864136, 0.1822136640548706, 0.031702104955911636, 0.15729427337646484, -0.26830554008483887, 0.6807084083557129, 0.03140964359045029, -0.03238861635327339, 0.7329473495483398, 0.5000942945480347, 0.5521315336227417, -0.09129850566387177, 0.5318962335586548, -0.4749036729335785, 0.6076259016990662, 0.14551487565040588], [0.5990102291107178, -0.2725619673728943, -0.005862687714397907, -0.392395555973053, 0.3166716992855072, 0.5608289837837219, 0.4215160012245178, -0.6472929120063782, 0.2040608823299408, -0.12307164072990417, 0.2539810836315155, 0.11284065246582031, -0.027693061158061028, 0.6794083714485168, 0.40629899501800537, -0.40417447686195374], [-0.11557795107364655, 0.8098020553588867, 0.1070137470960617, -0.44095951318740845, 0.17054639756679535, 0.4128546714782715, -0.1410434991121292, -0.10120303928852081, -0.7963383197784424, -0.3686462938785553, 0.41083839535713196, -0.20539270341396332, 0.3264950215816498, 0.1834544688463211, -0.4430687129497528, 0.4760277569293976], [0.4964957535266876, -0.5320660471916199, 0.16825565695762634, -0.1334686130285263, 0.13987590372562408, 0.3134198486804962, 0.6127963066101074, 0.5049081444740295, -0.04882531613111496, 0.31389230489730835, 0.46589526534080505, 0.20429912209510803, -0.9559771418571472, 0.02065746672451496, -0.17939430475234985, 0.13452358543872833], [0.5415286421775818, -0.3934255838394165, 1.3612310886383057, -0.07111041247844696, -0.49736717343330383, 0.22561755776405334, 0.5308528542518616, -0.8547648787498474, 1.0881692171096802, -0.909673810005188, 0.2858099341392517, -0.8802127838134766, 0.8849838376045227, -0.3911028802394867, 0.29216766357421875, 0.2759193778038025], [-0.23036296665668488, -0.5430274605751038, 0.20602931082248688, 0.6212670207023621, -0.8387870788574219, -1.142103910446167, -0.45526444911956787, -0.11864794045686722, 0.3838275671005249, 1.0885127782821655, -0.8613932132720947, 0.8686800003051758, 0.2763271927833557, 0.6210610270500183, -0.3093997538089752, 0.6760786771774292], [0.04436113312840462, -0.19786538183689117, 0.10654811561107635, -0.5213860273361206, -0.04331362247467041, 0.2510075867176056, -0.19919078052043915, -0.6367233991622925, -0.3399616777896881, 0.06735435873270035, 0.07776902616024017, 0.04590751230716705, 0.1537545770406723, -0.2531002163887024, -0.13261421024799347, -0.26995038986206055]], "1_weights": [[-0.2483421266078949, 0.2656317949295044, 0.16885137557983398, 0.15664424002170563, 0.23644991219043732, 0.38495513796806335, 0.5042886137962341, 0.08666475117206573, -0.7783960103988647, 0.5083799958229065, 0.478546142578125, 0.28477856516838074, 0.12653443217277527, -0.03842141106724739, -0.02006014622747898, 0.07652486860752106], [-0.23995450139045715, 0.4696599841117859, 0.20842140913009644, -0.5909252166748047, -0.3795231282711029, -0.4014756679534912, -0.31242847442626953, -0.838581919670105, -0.23439741134643555, 0.08901643753051758, 0.48412808775901794, 0.039675962179899216, 0.31193485856056213, -0.17443856596946716, -0.38827258348464966, 0.4088665843009949], [0.761074423789978, -0.020800834521651268, 0.03501502424478531, 0.15255892276763916, 0.30679938197135925, 0.1208186075091362, -0.47097551822662354, 0.5003452301025391, 0.2319653183221817, 0.48724767565727234, 0.284225732088089, 0.5316982269287109, -0.7706787586212158, 0.11755450814962387, 0.01217445358633995, 0.1366172581911087], [-1.2370662689208984, -0.4674556851387024, -0.042212460190057755, 0.9588025808334351, -0.19235439598560333, 2.0804054737091064, -0.384117066860199, 2.560009717941284, 0.21062932908535004, -0.49793797731399536, -0.9232557415962219, -0.20149780809879303, -0.2185068279504776, 2.9204282760620117, -0.450029194355011, -0.10089024901390076], [-0.3328768312931061, -0.7575646042823792, 0.36992377042770386, -0.09969941526651382, -0.01039347518235445, 0.18196870386600494, 0.0153206717222929, 0.12271128594875336, -0.2749978005886078, -0.32814526557922363, -0.3216433525085449, -0.5487625002861023, 0.2303679883480072, 0.4636639356613159, 0.31293433904647827, -0.04799927771091461], [0.5654195547103882, 0.547206699848175, -0.23652903735637665, -0.06551458686590195, -0.47028738260269165, 0.3866836428642273, 0.066647008061409, 0.4665273427963257, 0.5927770733833313, 0.06261244416236877, 0.3001471757888794, 0.7119137644767761, 0.22630207240581512, 0.39205440878868103, -0.1804000586271286, -0.12797188758850098], [0.12565560638904572, 0.39740973711013794, 0.1327165961265564, 0.13348373770713806, -0.21472696959972382, -0.1624675840139389, -0.4330053925514221, 0.09732422977685928, 0.154790997505188, -0.26947900652885437, -0.1933956891298294, -0.36885330080986023, 0.39312049746513367, -0.03022155538201332, 0.49538201093673706, -0.19739016890525818], [-0.5706983208656311, 0.4904884397983551, 0.15059930086135864, 0.08702854812145233, 0.5665841102600098, -0.7732990384101868, 0.5993185043334961, -0.3274182975292206, -0.4794858396053314, 0.4327371418476105, 0.014770299196243286, 0.04290716350078583, 0.2668762505054474, -0.5040140748023987, -0.3423258066177368, 0.16579782962799072], [-0.09758495539426804, -0.1611369103193283, 1.3419044017791748, -0.21995742619037628, -0.28196805715560913, 0.49172961711883545, -0.4622614085674286, 0.7134052515029907, -1.3427278995513916, -0.23624445497989655, -0.7567867636680603, -0.1802395135164261, -0.14757037162780762, 0.6382720470428467, 0.026127193123102188, -0.38345155119895935], [0.5167891979217529, -0.11304773390293121, -0.07102122902870178, 0.3557201623916626, -0.08904124796390533, -0.24211671948432922, 0.30652934312820435, -0.2150714099407196, 0.4420434534549713, 0.2000313401222229, 0.3569692373275757, 0.15283937752246857, -0.7043076157569885, 0.33876004815101624, 0.37228894233703613, -0.171273335814476], [-0.45807015895843506, -0.3871214985847473, -0.025650523602962494, 0.4167807400226593, 0.9014419317245483, -0.09478810429573059, 0.30182945728302, 0.34995540976524353, -0.29702672362327576, -0.34418976306915283, 0.2614327669143677, -0.1480070799589157, 0.4034043848514557, 0.5109987854957581, 0.30153343081474304, 0.13799460232257843], [0.4806121587753296, 0.3217202126979828, 0.362612783908844, -0.3058586120605469, 0.3960270285606384, -0.2382912039756775, 0.6576477289199829, 0.29611387848854065, 0.5047591328620911, 0.3352213501930237, 0.07987699657678604, 0.2676759660243988, 0.16827452182769775, -0.43068304657936096, 0.5210962891578674, 0.512619137763977], [0.7519447803497314, 0.6573544144630432, 0.3245474398136139, 0.564003586769104, 1.12918221950531, -0.21898482739925385, 0.12271451205015182, -0.6543018817901611, 0.7447830438613892, -0.051128990948200226, 0.6485841870307922, 0.834193229675293, -0.4255615770816803, 0.5513048768043518, 0.14254118502140045, 0.030316460877656937], [-0.20502784848213196, -0.16908076405525208, 0.4405137896537781, 0.4595220983028412, -0.11450082808732986, -0.2757275402545929, -0.26448866724967957, 0.4781359136104584, 0.0015904593747109175, -0.24832242727279663, -0.7135159969329834, -0.32160767912864685, 0.21533073484897614, 0.10188508778810501, 0.7343480587005615, -0.16135983169078827], [-0.09925083070993423, -0.1811310052871704, 0.2637137174606323, 0.11180415004491806, -0.17528463900089264, 0.5948954820632935, -0.23348619043827057, -0.13163352012634277, 0.5040974617004395, 0.25222963094711304, 0.4784074127674103, -0.1026749238371849, 0.04492116719484329, -0.4234541058540344, 0.18488994240760803, 0.3701426684856415], [0.8070449829101562, 0.43938225507736206, 0.2722535729408264, 0.14566530287265778, 0.4050363302230835, 0.1586916446685791, 0.08425343036651611, -0.17261917889118195, 0.8136248588562012, 0.7121378183364868, 0.5526660680770874, 0.2950303554534912, -0.5907246470451355, -0.4511404037475586, -0.2720334231853485, -0.07570572942495346]], "2_weights": [[0.7836729884147644, 0.7149385213851929, 0.6039672493934631], [0.23854127526283264, 0.4236130714416504, 0.39520981907844543], [-0.5008271932601929, -0.40723496675491333, 0.0647178664803505], [0.11885547637939453, -0.24757134914398193, -0.523985743522644], [1.2051069736480713, 0.5842148661613464, 0.0912540853023529], [-0.6344771981239319, -0.7242926359176636, -0.6775902509689331], [0.7208694219589233, 0.752611517906189, 0.8206725120544434], [-0.497945100069046, -0.4575708508491516, -0.3778548836708069], [-0.9217019081115723, -0.26732829213142395, 0.7920377850532532], [0.3548244535923004, 0.6464802622795105, 0.45323169231414795], [0.6436637043952942, 0.27411606907844543, 0.5107607245445251], [-0.030366135761141777, 0.6578490734100342, 0.6425060629844666], [-0.7418067455291748, -0.5491633415222168, -0.8594335317611694], [-1.3664343357086182, -1.1329115629196167, -0.972872793674469], [-0.4770699143409729, -0.43108105659484863, -0.5313770771026611], [0.3453492820262909, -0.094169981777668, 0.041535358875989914]], "0_bias": [0.15840590000152588, 0.10550983995199203, -0.021800916641950607, 0.03194348141551018, 0.009205933660268784, -0.045647017657756805, 0.01174903754144907, 0.07437333464622498, -0.026471354067325592, -0.023856282234191895, 0.027769429609179497, -0.0737636387348175, 0.20235095918178558, 0.1025516539812088, 0.10276791453361511, 0.0438096821308136], "1_bias": [0.022790146991610527, 0.007360570598393679, -0.05745662748813629, 0.20001494884490967, 0.2078862190246582, 0.05047904700040817, 0.061566561460494995, 0.01736696995794773, -0.46636396646499634, 0.10844065994024277, 0.038853518664836884, 0.02140124887228012, 0.010197397321462631, -0.11734314262866974, 0.05767145752906799, 0.1322612166404724], "2_bias": [0.07826631516218185, 0.04244045913219452, -0.12434467673301697],"obj_num": 2}