{"0_weights": [[0.048601631075143814, -0.010101204738020897, -0.5808752179145813, -0.07116483151912689, 0.3234347105026245, -0.36516305804252625, -0.38506677746772766, 0.15948104858398438, -0.007915327325463295, -0.4204494059085846, 0.3597162365913391, -0.4464666545391083, -0.3798922002315521, 0.20846299827098846, 0.3546808362007141, -0.41887402534484863], [-0.06509581208229065, 0.6589129567146301, 0.3473629057407379, -0.014246911741793156, -0.4980280101299286, 0.2811436057090759, 0.6086229085922241, -0.21755489706993103, 0.7282532453536987, 0.524616003036499, 0.3989560306072235, -0.10538573563098907, 0.11428207159042358, 0.8334762454032898, 0.47794413566589355, -0.3457750678062439], [0.596926212310791, -0.14530786871910095, 0.7377733588218689, -0.046866100281476974, 0.5766549110412598, 0.39853373169898987, 0.10649019479751587, -0.5582123398780823, -0.7975761294364929, 0.17973490059375763, -0.6602091789245605, 1.0714462995529175, 0.00656701996922493, -0.3517029583454132, 0.2093060165643692, 0.45976966619491577], [-0.45446401834487915, 0.6534114480018616, -0.036791205406188965, 0.4867769479751587, -0.1865711361169815, 0.5837849378585815, -0.4163508713245392, 0.5879072546958923, -0.29971733689308167, 0.056932367384433746, -0.37142008543014526, 0.2926519513130188, 0.2847939729690552, -0.05377413332462311, -0.19022922217845917, -0.4584383964538574], [1.5568621158599854, -0.10049106925725937, 0.39890745282173157, 0.5013888478279114, -0.06070232391357422, 0.28689664602279663, -0.1537286341190338, 0.32853636145591736, 0.37942010164260864, 0.7314305305480957, 0.6266925930976868, 0.21365638077259064, 0.748733401298523, -0.4363315999507904, 0.3554338812828064, 0.08697985112667084], [0.6128337979316711, -0.3431823253631592, -0.02794729173183441, -0.40854156017303467, 0.3516344726085663, 0.37569814920425415, 0.370519757270813, -0.5187943577766418, 0.12479064613580704, -0.008742764592170715, 0.276798814535141, 0.2608630955219269, 0.16953237354755402, 0.7159591913223267, 0.4557321071624756, -0.198173388838768], [0.05571677163243294, 0.11840429902076721, -0.05928029865026474, -0.03180674836039543, -0.21758094429969788, 0.378446102142334, -0.14909221231937408, -0.10549668967723846, -0.6995867490768433, -0.6779011487960815, 0.5306097269058228, -0.618342399597168, 0.28307199478149414, 0.4172745645046234, -0.03816930949687958, 0.5661923289299011], [0.773147463798523, -0.5009676218032837, 0.13640744984149933, 0.09792526066303253, 0.42208048701286316, 0.7966755032539368, 0.8688423037528992, 0.5527493357658386, 0.17644503712654114, 0.10694361478090286, 0.2677876651287079, 0.3593715727329254, -0.5861779451370239, 0.10443934053182602, -0.2985553443431854, -0.2062627673149109], [0.10821861773729324, -0.42613062262535095, 0.02036343142390251, 0.20053879916667938, -0.11319337785243988, -0.14204749464988708, 0.18724815547466278, -0.0513315424323082, 0.4712405204772949, -0.41054779291152954, -0.05489439144730568, -0.04682515934109688, 0.1929212361574173, -0.06067747250199318, -0.07147680968046188, -0.31847336888313293], [0.0632140189409256, -0.2986024022102356, -0.07724174857139587, -0.11187893897294998, -0.7298524975776672, -0.14220017194747925, -0.02693171799182892, 0.09517929702997208, 0.0038318189326673746, 0.06738162785768509, -0.05301058292388916, 0.3656173348426819, -0.5394940376281738, -0.10718999058008194, -0.2106591910123825, 0.2774404287338257], [0.6693496704101562, -0.025279350578784943, 0.6708395481109619, -0.5987022519111633, 0.014628645032644272, 0.8762786984443665, -0.2617417275905609, 0.0008233953267335892, -0.014847559854388237, 0.20885014533996582, -0.022563230246305466, 0.6905155181884766, 0.42285141348838806, 0.11249930411577225, 0.09958049654960632, -0.23359233140945435]], "1_weights": [[-0.043600697070360184, 0.37185999751091003, 0.5292770862579346, 0.10989445447921753, 0.11514423042535782, 0.4888485074043274, 0.2572875916957855, -0.08612310886383057, -0.011958148330450058, 0.5588539838790894, 0.432239294052124, 0.4453725814819336, 0.485890656709671, -0.5398592352867126, 0.22331838309764862, -0.05266246572136879], [-0.2617952227592468, 0.5658199191093445, 0.1843475103378296, -0.4596814215183258, -0.17551793158054352, -0.35113725066185, -0.259148508310318, -0.5069653987884521, 0.16008992493152618, 0.07264722883701324, 0.4400777518749237, 0.0793178454041481, 0.0905909314751625, 0.19863542914390564, -0.42124876379966736, 0.47765588760375977], [0.6422333121299744, -0.23250024020671844, -0.05906419828534126, -0.2866663932800293, -0.5329471230506897, -0.19046328961849213, -0.6314111948013306, 0.16740277409553528, 0.46062418818473816, 0.40626874566078186, -0.04872541502118111, 0.8226964473724365, -0.4404942989349365, -0.4111201763153076, -0.10617510974407196, -0.33102720975875854], [0.45556408166885376, 0.23705770075321198, -0.42365363240242004, 0.06511209160089493, 0.13252276182174683, 0.11256831139326096, -0.2001633197069168, -0.40831366181373596, -0.03638293221592903, -0.2757706642150879, -0.003307456849142909, -0.1107020378112793, -0.37408971786499023, -0.002857586368918419, -0.41162338852882385, 0.48974108695983887], [-0.19195041060447693, -0.6967492699623108, 0.08868196606636047, 0.17477045953273773, 0.21601152420043945, 0.11041418462991714, 0.055766236037015915, 0.3480915129184723, -0.23807378113269806, -0.8212449550628662, -0.16408894956111908, -0.39673206210136414, 0.2229754626750946, -0.24599114060401917, 0.2370687872171402, -0.372426301240921], [0.5221273899078369, 0.44412314891815186, -0.03870636969804764, 0.18557903170585632, -0.3504561185836792, 0.5307919383049011, -0.11751744151115417, 0.5429717302322388, 0.12397896498441696, 0.02436758764088154, 0.11333473026752472, 0.5682392120361328, 0.4780617356300354, -0.5044133067131042, 0.037964142858982086, -0.4165297746658325], [0.09245875477790833, 0.4506327509880066, -0.0506865493953228, 0.06572655588388443, -0.4716009497642517, 0.1620395928621292, -0.24158073961734772, -0.12051703780889511, -0.039811260998249054, 0.1428954005241394, -0.3308257460594177, 0.001191809307783842, 0.29348134994506836, 0.7433484792709351, 0.2735980749130249, -0.3103611171245575], [-0.40579426288604736, 0.42696622014045715, 0.21389473974704742, 0.3434905409812927, 0.2800385653972626, -0.3583640456199646, 0.5498825907707214, -0.28552117943763733, -0.24211381375789642, 0.12834011018276215, 0.016070760786533356, -0.4671807587146759, 0.24202141165733337, 0.06624017655849457, -0.3374762535095215, 0.11241273581981659], [-0.07702264189720154, -0.4088153541088104, 0.4721579849720001, 0.263729453086853, 0.03957384079694748, 0.16276589035987854, -0.1767875999212265, 0.7962439060211182, -0.35633236169815063, 0.1773519068956375, -0.5023061633110046, -0.2690190076828003, 0.1843584179878235, -0.13845257461071014, -0.009999596513807774, -0.033480431884527206], [0.6625214219093323, 0.15545718371868134, -0.07664085179567337, 0.20465785264968872, -0.09675151109695435, -0.2243891954421997, 0.016122758388519287, -0.4932975471019745, 0.278524249792099, 0.33292606472969055, 0.3774501383304596, 0.4733821153640747, -0.4543273448944092, -0.030730661004781723, 0.036429692059755325, 0.17578016221523285], [-0.41511812806129456, -0.3690735697746277, 0.17045633494853973, 0.26885995268821716, 0.5503016114234924, 0.0746532529592514, 0.22376099228858948, 0.078562892973423, -0.3725666403770447, -0.4014793634414673, 0.20097923278808594, -0.087595134973526, 0.41297319531440735, 0.1535266786813736, 0.2101430594921112, 0.24397984147071838], [0.6923513412475586, 0.4440170228481293, 0.18397700786590576, -0.3249649107456207, -0.019046546891331673, -0.24601587653160095, -0.34196937084198, -0.33691850304603577, 0.6717102527618408, 0.44300755858421326, 0.1888704001903534, 0.41696643829345703, 0.10494274646043777, 0.5731658339500427, 0.3322550654411316, 0.7497074007987976], [0.660146951675415, 0.35267361998558044, -0.0825352594256401, -0.23692665994167328, 0.3148921728134155, -0.6155898571014404, -0.5704554319381714, -0.2507460117340088, 0.5564269423484802, -0.4162490665912628, 0.4144243001937866, 0.262233167886734, -0.17730499804019928, 0.570989191532135, 0.159589484333992, 0.31495311856269836], [-0.05474183335900307, -0.10732987523078918, 0.25180861353874207, 0.38842326402664185, -0.15542010962963104, -0.06536652892827988, -0.20107781887054443, 0.6048126220703125, 0.36859801411628723, -0.1501864641904831, -0.6851617097854614, -0.30484139919281006, 0.09379361569881439, -0.003020938253030181, 0.6588165760040283, -0.012160534970462322], [-0.055456530302762985, -0.3848012685775757, 0.304119735956192, -0.052382100373506546, 0.01225331798195839, 0.4609213173389435, -0.09451084583997726, 0.0024612753186374903, 0.32163822650909424, 0.22260011732578278, 0.36914366483688354, -0.1546596884727478, 0.1585482954978943, -0.6941245198249817, 0.36632299423217773, 0.08424456417560577], [-0.6636918783187866, -0.35666966438293457, 0.06404753774404526, 0.5247870683670044, -0.654767632484436, 0.43255192041397095, 0.06888584792613983, 0.4361368417739868, -0.29003068804740906, -0.3738619089126587, -0.2894470989704132, -0.6733089089393616, -0.0461265966296196, -0.4437381327152252, 0.1735588014125824, -0.02349606715142727]], "2_weights": [[0.41493403911590576, 0.39249348640441895, 0.4767656922340393], [0.49880075454711914, 0.4221193194389343, 0.3837253451347351], [-0.3294866383075714, -0.4778248369693756, -0.04191279411315918], [-0.1094699501991272, 0.010293981991708279, -0.3986150324344635], [0.533129096031189, 0.30477234721183777, 0.23709410429000854], [-0.3238206207752228, -0.6455973982810974, -0.4957910180091858], [0.49423640966415405, 0.39992016553878784, 0.37225762009620667], [-0.18305805325508118, -0.12079629302024841, -0.4478559195995331], [0.33257821202278137, 0.2754044234752655, 0.49984049797058105], [0.40217822790145874, 0.41793397068977356, 0.4217011332511902], [0.31814277172088623, 0.2605741322040558, 0.0769445151090622], [0.44318175315856934, 0.5699453353881836, 0.5067446231842041], [-0.5011961460113525, -0.2727101445198059, -0.795441746711731], [-1.2564135789871216, -1.0704623460769653, -1.2865554094314575], [-0.2966444194316864, -0.3078841269016266, -0.14987024664878845], [0.3471736013889313, 0.17638906836509705, -0.007021070457994938]], "0_bias": [0.2366233617067337, -0.1586046814918518, -0.06254149973392487, 0.2400125116109848, -0.029297225177288055, -0.059738583862781525, 0.049806468188762665, 0.14148840308189392, 0.108652263879776, -0.06273950636386871, 0.16799849271774292, 0.06798017770051956, 0.1487637311220169, 0.0749460980296135, -0.03554636612534523, 0.05355308577418327], "1_bias": [-0.026902761310338974, 0.02168961428105831, -0.04031159356236458, -0.031267788261175156, -0.02389601618051529, -0.051934707909822464, 0.20857742428779602, 0.020306110382080078, 0.05691800266504288, 0.11198115348815918, 0.14564135670661926, -0.02924211695790291, 0.03729648143053055, 0.23047274351119995, 0.043027933686971664, 0.03147098422050476], "2_bias": [0.06637858599424362, 0.08423914760351181, 0.0978269875049591],"obj_num": 6}